<?xml version="1.0"?>
<MethodSetup Method="MLP::MLP">
  <GeneralInfo>
    <Info name="TMVA Release" value="4.1.3 [262403]"/>
    <Info name="ROOT Release" value="5.34/03 [336387]"/>
    <Info name="Creator" value="ojalvo"/>
    <Info name="Date" value="Sat Oct 19 00:55:07 2013"/>
    <Info name="Host" value="Linux lxbuild167.cern.ch 2.6.18-308.16.1.el5 #1 SMP Thu Oct 4 14:02:28 CEST 2012 x86_64 x86_64 x86_64 GNU/Linux"/>
    <Info name="Dir" value="/afs/cern.ch/user/o/ojalvo/private/forIsobel"/>
    <Info name="Training events" value="20524"/>
    <Info name="TrainingTime" value="2.54995388e+03"/>
    <Info name="AnalysisType" value="Regression"/>
  </GeneralInfo>
  <Options>
    <Option name="NCycles" modified="Yes">700</Option>
    <Option name="HiddenLayers" modified="Yes">N,N-1</Option>
    <Option name="NeuronType" modified="No">sigmoid</Option>
    <Option name="RandomSeed" modified="No">1</Option>
    <Option name="EstimatorType" modified="No">MSE</Option>
    <Option name="NeuronInputType" modified="No">sum</Option>
    <Option name="V" modified="No">False</Option>
    <Option name="VerbosityLevel" modified="No">Default</Option>
    <Option name="VarTransform" modified="Yes">Norm</Option>
    <Option name="H" modified="No">False</Option>
    <Option name="CreateMVAPdfs" modified="No">False</Option>
    <Option name="IgnoreNegWeightsInTraining" modified="No">False</Option>
    <Option name="TrainingMethod" modified="Yes">BFGS</Option>
    <Option name="LearningRate" modified="No">2.000000e-02</Option>
    <Option name="DecayRate" modified="No">1.000000e-02</Option>
    <Option name="TestRate" modified="Yes">5</Option>
    <Option name="EpochMonitoring" modified="No">False</Option>
    <Option name="Sampling" modified="No">1.000000e+00</Option>
    <Option name="SamplingEpoch" modified="No">1.000000e+00</Option>
    <Option name="SamplingImportance" modified="No">1.000000e+00</Option>
    <Option name="SamplingTraining" modified="No">True</Option>
    <Option name="SamplingTesting" modified="No">False</Option>
    <Option name="ResetStep" modified="No">50</Option>
    <Option name="Tau" modified="No">3.000000e+00</Option>
    <Option name="BPMode" modified="No">sequential</Option>
    <Option name="BatchSize" modified="No">-1</Option>
    <Option name="ConvergenceImprove" modified="No">1.000000e-30</Option>
    <Option name="ConvergenceTests" modified="No">-1</Option>
    <Option name="UseRegulator" modified="No">False</Option>
    <Option name="UpdateLimit" modified="No">10000</Option>
    <Option name="CalculateErrors" modified="No">False</Option>
    <Option name="WeightRange" modified="No">1.000000e+00</Option>
  </Options>
  <Variables NVar="11">
    <Variable VarIndex="0" Expression="jetBtag" Label="jetBtag" Title="jetBtag" Unit="" Internal="jetBtag" Type="F" Min="0.00000000e+00" Max="1.00000000e+00"/>
    <Variable VarIndex="1" Expression="jetPtRaw" Label="jetPtRaw" Title="jetPtRaw" Unit="" Internal="jetPtRaw" Type="F" Min="1.97035713e+01" Max="7.67937866e+02"/>
    <Variable VarIndex="2" Expression="jetEta" Label="jetEta" Title="jetEta" Unit="" Internal="jetEta" Type="F" Min="-4.16519356e+00" Max="3.91055536e+00"/>
    <Variable VarIndex="3" Expression="jetNConst" Label="jetNConst" Title="jetNConst" Unit="" Internal="jetNConst" Type="F" Min="5.00000000e+00" Max="1.08000000e+02"/>
    <Variable VarIndex="4" Expression="jetPhf" Label="jetPhf" Title="jetPhf" Unit="" Internal="jetPhf" Type="F" Min="0.00000000e+00" Max="8.99061799e-01"/>
    <Variable VarIndex="5" Expression="jetNhf" Label="jetNhf" Title="jetNhf" Unit="" Internal="jetNhf" Type="F" Min="0.00000000e+00" Max="9.52483118e-01"/>
    <Variable VarIndex="6" Expression="jetElf" Label="jetElf" Title="jetElf" Unit="" Internal="jetElf" Type="F" Min="0.00000000e+00" Max="9.16384041e-01"/>
    <Variable VarIndex="7" Expression="jetMuf" Label="jetMuf" Title="jetMuf" Unit="" Internal="jetMuf" Type="F" Min="0.00000000e+00" Max="9.04153645e-01"/>
    <Variable VarIndex="8" Expression="jetVtxPt" Label="jetVtxPt" Title="jetVtxPt" Unit="" Internal="jetVtxPt" Type="F" Min="0.00000000e+00" Max="1.76652405e+02"/>
    <Variable VarIndex="9" Expression="jetVtx3dL" Label="jetVtx3dL" Title="jetVtx3dL" Unit="" Internal="jetVtx3dL" Type="F" Min="0.00000000e+00" Max="1.06596174e+01"/>
    <Variable VarIndex="10" Expression="jetVtx3deL" Label="jetVtx3deL" Title="jetVtx3deL" Unit="" Internal="jetVtx3deL" Type="F" Min="0.00000000e+00" Max="1.90848935e+00"/>
  </Variables>
  <Spectators NSpec="0"/>
  <Classes NClass="1">
    <Class Name="Regression" Index="0"/>
  </Classes>
  <Targets NTrgt="1">
    <Target TargetIndex="0" Expression="jetGenPt/jetPt" Label="jetGenPt/jetPt" Title="jetGenPt/jetPt" Unit="" Internal="jetGenPt_D_jetPt" Type="F" Min="7.24525154e-02" Max="3.79486108e+00"/>
  </Targets>
  <Transformations NTransformations="1">
    <Transform Name="Normalize">
      <Selection>
        <Input NInputs="12">
          <Input Type="Variable" Label="jetBtag" Expression="jetBtag"/>
          <Input Type="Variable" Label="jetPtRaw" Expression="jetPtRaw"/>
          <Input Type="Variable" Label="jetEta" Expression="jetEta"/>
          <Input Type="Variable" Label="jetNConst" Expression="jetNConst"/>
          <Input Type="Variable" Label="jetPhf" Expression="jetPhf"/>
          <Input Type="Variable" Label="jetNhf" Expression="jetNhf"/>
          <Input Type="Variable" Label="jetElf" Expression="jetElf"/>
          <Input Type="Variable" Label="jetMuf" Expression="jetMuf"/>
          <Input Type="Variable" Label="jetVtxPt" Expression="jetVtxPt"/>
          <Input Type="Variable" Label="jetVtx3dL" Expression="jetVtx3dL"/>
          <Input Type="Variable" Label="jetVtx3deL" Expression="jetVtx3deL"/>
          <Input Type="Target" Label="jetGenPt/jetPt" Expression="jetGenPt/jetPt"/>
        </Input>
        <Output NOutputs="12">
          <Output Type="Variable" Label="jetBtag" Expression="jetBtag"/>
          <Output Type="Variable" Label="jetPtRaw" Expression="jetPtRaw"/>
          <Output Type="Variable" Label="jetEta" Expression="jetEta"/>
          <Output Type="Variable" Label="jetNConst" Expression="jetNConst"/>
          <Output Type="Variable" Label="jetPhf" Expression="jetPhf"/>
          <Output Type="Variable" Label="jetNhf" Expression="jetNhf"/>
          <Output Type="Variable" Label="jetElf" Expression="jetElf"/>
          <Output Type="Variable" Label="jetMuf" Expression="jetMuf"/>
          <Output Type="Variable" Label="jetVtxPt" Expression="jetVtxPt"/>
          <Output Type="Variable" Label="jetVtx3dL" Expression="jetVtx3dL"/>
          <Output Type="Variable" Label="jetVtx3deL" Expression="jetVtx3deL"/>
          <Output Type="Target" Label="jetGenPt/jetPt" Expression="jetGenPt/jetPt"/>
        </Output>
      </Selection>
      <Class ClassIndex="0">
        <Ranges>
          <Range Index="0" Min="0.0000000000000000e+00" Max="1.0000000000000000e+00"/>
          <Range Index="1" Min="1.9703571319580078e+01" Max="7.6793786621093750e+02"/>
          <Range Index="2" Min="-4.1651935577392578e+00" Max="3.9105553627014160e+00"/>
          <Range Index="3" Min="5.0000000000000000e+00" Max="1.0800000000000000e+02"/>
          <Range Index="4" Min="0.0000000000000000e+00" Max="8.9906179904937744e-01"/>
          <Range Index="5" Min="0.0000000000000000e+00" Max="9.5248311758041382e-01"/>
          <Range Index="6" Min="0.0000000000000000e+00" Max="9.1638404130935669e-01"/>
          <Range Index="7" Min="0.0000000000000000e+00" Max="9.0415364503860474e-01"/>
          <Range Index="8" Min="0.0000000000000000e+00" Max="1.7665240478515625e+02"/>
          <Range Index="9" Min="0.0000000000000000e+00" Max="1.0659617424011230e+01"/>
          <Range Index="10" Min="0.0000000000000000e+00" Max="1.9084893465042114e+00"/>
          <Range Index="11" Min="7.2452515363693237e-02" Max="3.7948610782623291e+00"/>
        </Ranges>
      </Class>
    </Transform>
  </Transformations>
  <MVAPdfs/>
  <Weights>
    <Layout NLayers="4">
      <Layer Index="0" NNeurons="12">
        <Neuron NSynapses="11">
          -5.3018729155423816e-01 1.0095116314431261e+00 7.2542369924633621e-01 4.1295625989888518e-01 -1.2750251250020619e+00 -3.0887915459233191e+00 -9.7355614358554632e-01 4.2493583182842416e+00 -7.5635745282577704e-01 -8.7135168183426459e-01 1.9788043616410005e-02 
        </Neuron>
        <Neuron NSynapses="11">
          -6.9979062369464418e-01 8.5970969545175036e-01 -1.3649793229050291e+00 -8.3761208606380428e+00 1.5911917371426727e+00 -2.0723770241731820e+00 1.9763289703413636e+00 3.1904920856609094e+00 -1.3106981684716246e+00 9.4551557985110224e-01 -2.4810432233246380e+00 
        </Neuron>
        <Neuron NSynapses="11">
          7.2557890233947142e-01 -3.7854738726625947e+00 -3.0089023353170480e-01 -8.7462658283367456e-01 1.2697574424269322e+00 7.2987276114729827e-02 -1.8186082356885913e+00 7.0495760327888968e-01 9.9467563670517567e+00 1.0801112864872113e+00 -2.5679431008493664e-01 
        </Neuron>
        <Neuron NSynapses="11">
          -2.0264322441426605e-01 -9.2113377571877736e-02 -8.3060654492463104e-01 -1.3729906710083288e+00 1.9115047219370720e+00 -5.3414472268544511e-01 9.3881788587037485e-01 7.0566569451050221e-01 8.7332847238260181e-01 2.0005439704294465e+00 -2.6000998995271202e-01 
        </Neuron>
        <Neuron NSynapses="11">
          -9.5766362695562168e-01 1.4142073254850112e+00 3.3112391367582938e-01 2.5441622354058901e-01 1.5633369439273768e+00 1.6616703996191682e+00 1.4951300507713290e+00 -2.6672596558778483e-01 2.4734537868062793e-02 1.1748847443507384e+00 -2.3837865895899206e+00 
        </Neuron>
        <Neuron NSynapses="11">
          -1.2716118970084045e+00 5.6429093705467304e-01 -2.1343199990953869e+00 1.4559041330377756e-01 1.4801163487300524e+00 -1.1338494854903598e+00 8.0511602620883838e-01 3.9739007538541815e-01 -7.5959025858552220e-01 2.2932549768178743e+00 -2.3735153035903158e+00 
        </Neuron>
        <Neuron NSynapses="11">
          -3.9469365897231590e-03 -3.1417856647312123e+00 -5.1363096506447325e-02 1.7303111515013976e+00 4.0315723993759328e-01 1.1147171205225520e-01 1.8605432197267660e+00 -5.7377804558440348e-01 5.3280177466131495e-01 1.5060962094160788e+00 -2.2496103379209673e+00 
        </Neuron>
        <Neuron NSynapses="11">
          -1.0806831132279855e+00 -6.2296636047582310e-01 -2.4290539176702680e-01 1.5438861310370953e+00 1.6571494582865831e+00 3.9595658883735614e+00 -1.6740149037138446e-01 -4.6941283425537783e+00 1.1037580245092826e+00 2.4705408509941029e+00 -2.3080184361552041e+00 
        </Neuron>
        <Neuron NSynapses="11">
          -2.2515389105739172e+00 -6.2877805944315424e-01 -9.1824716375704740e-01 -1.2383150749224858e+00 2.6798034351175524e+00 -1.6136137424719914e+00 -3.6158824443964138e-01 -8.7750364807069625e-01 -2.2888981175107221e+00 -7.6695420036939896e-02 -2.5981752203734532e+00 
        </Neuron>
        <Neuron NSynapses="11">
          2.5978120773124858e-01 -3.1344841025358390e+00 -1.8667667859246113e+00 -5.0834449356131139e-01 2.5732601175429060e+00 -3.9105711120944848e+00 1.6168343451473832e+00 -3.0944676999946004e+00 2.1422120737741919e+00 1.3234629030929199e+00 -1.2420655690669218e+00 
        </Neuron>
        <Neuron NSynapses="11">
          -1.7330072474026352e+00 1.0784907610202423e+00 -4.6261902821415313e-01 1.7564147963728258e+00 -3.2367686848436072e-01 1.9197027744905950e+00 8.6873780766495456e-01 2.5491989116172276e+00 -3.8217036794091142e-01 5.0627660625445570e-01 -3.3872064245723967e+00 
        </Neuron>
        <Neuron NSynapses="11">
          2.3398983163420528e-01 -1.5294330156685392e+00 2.7474128203275119e+00 -4.9111838487059982e+00 -1.1572251340307074e+00 -1.4983710783999322e+00 -4.0191113197525224e-01 -7.4413333512622426e+00 3.2190340750468955e+00 -1.5000935579490540e+00 7.7560979182582965e-02 
        </Neuron>
      </Layer>
      <Layer Index="1" NNeurons="12">
        <Neuron NSynapses="10">
          2.2755572918890108e+00 -1.5110303217092926e+00 -1.2064610592437870e+00 2.2546411279101162e+00 2.6058275105085826e+00 -3.5637925895642235e+00 1.3826537577224858e+00 8.1732912716038109e-01 2.6619728948684660e+00 -9.6925233051932880e-01 
        </Neuron>
        <Neuron NSynapses="10">
          -1.2540797322836774e+00 -1.8521194168045804e-01 -1.8773016385210206e+00 2.7086774655306987e+00 1.9489578255642475e+00 -2.3113083086543171e+00 5.6739088166375939e-01 -5.4707896034050085e-01 -1.8749060938523737e-01 8.1467668407323279e-02 
        </Neuron>
        <Neuron NSynapses="10">
          2.6946958004914978e+00 -5.9249032170347726e-01 -1.6589125941440150e+00 1.1670726614841900e+00 1.6259380694037817e+00 -1.3550853533794696e+00 1.7316535811563822e+00 -2.4343339139467215e+00 2.3519870928626672e+00 2.4751699720889278e-01 
        </Neuron>
        <Neuron NSynapses="10">
          -2.2998609161182566e+00 5.5892330470585472e-01 2.3886570138978760e+00 -8.1025657692389796e-01 -1.2633994167834486e-01 -1.2887484676240253e+00 -7.5582586735142399e-01 -8.6431604689505198e-02 3.1401513207463281e+00 5.3470673282024128e+00 
        </Neuron>
        <Neuron NSynapses="10">
          -4.3315617606001394e-01 1.5119844156500037e+00 1.4075785062984321e+00 -1.6288732313550687e+00 7.0581837273345405e-01 3.6452371714942472e-01 7.7431537848894594e-01 -1.6607835938343840e+00 -1.5666227893627311e+00 1.0225777342440578e+00 
        </Neuron>
        <Neuron NSynapses="10">
          6.9330867852613531e+00 -1.7708773323774714e+00 -9.5004801990788190e-01 -1.0658600067486293e-01 7.0941890357366699e-01 -9.7318088734109409e-01 -1.7235865289976729e-01 -1.4043979644535780e+00 1.1275315728208719e+00 9.3141279483578243e-01 
        </Neuron>
        <Neuron NSynapses="10">
          1.3452014516812469e+00 1.0696158508105531e+00 3.3464916848610041e-02 -5.8472515580634354e-01 -1.8416628105268951e+00 1.4657966104675104e+00 6.7039804014447157e-01 -1.2750526094598840e+00 -7.4731544969578889e-01 7.8629346265349405e-03 
        </Neuron>
        <Neuron NSynapses="10">
          3.7559088959980822e+00 -2.0297922979535392e+00 1.0287603694124838e+00 1.2733963438325979e+00 -4.1014652558222198e-01 5.0203468143701402e-01 2.0303246250645448e+00 3.0113618956162086e-01 4.2273022873214783e-01 -3.7706759358836659e+00 
        </Neuron>
        <Neuron NSynapses="10">
          -2.3275489178976172e+00 -5.2127255483721935e-01 1.6183807646526196e+00 1.5637543773607325e+00 6.4644436172279895e-01 -1.4071425375035855e+00 2.2459771798509394e+00 -1.9393823559294152e+00 2.3493024904953397e-01 2.0191054995046889e+00 
        </Neuron>
        <Neuron NSynapses="10">
          -1.8685725359990679e+00 9.1829943352469134e-01 -2.6551328904420862e-01 1.4776341132106324e-01 9.7737538951130398e-01 9.7281585458256936e-01 -4.2905175364299264e-01 -8.3537609605891316e-01 7.9063824048056575e-01 -3.6782424598762492e-01 
        </Neuron>
        <Neuron NSynapses="10">
          2.0859351595658562e+00 -1.2583430987893311e+00 -8.2626832073270651e-02 -5.2560184299875568e-01 2.0087449480610036e+00 -6.9028755839824829e-01 -2.7810928735205759e-01 -1.3586592733622738e+00 -7.3287469888079793e-01 -2.1661242842295212e+00 
        </Neuron>
        <Neuron NSynapses="10">
          -2.7104130462132020e-01 -1.6453221419705442e+00 -3.1457930920048369e+00 1.1173463522936931e+00 -2.1812026180283028e-01 -3.3220292780103513e+00 2.4762468112260398e+00 -1.6429251834748906e+00 1.1658902517139464e+00 -2.7025246300827086e+00 
        </Neuron>
      </Layer>
      <Layer Index="2" NNeurons="11">
        <Neuron NSynapses="1">
          -2.1035890350397097e+00 
        </Neuron>
        <Neuron NSynapses="1">
          1.8301016684632363e+00 
        </Neuron>
        <Neuron NSynapses="1">
          -1.7650066972855583e+00 
        </Neuron>
        <Neuron NSynapses="1">
          1.7174743719849705e+00 
        </Neuron>
        <Neuron NSynapses="1">
          -2.0741253433625233e+00 
        </Neuron>
        <Neuron NSynapses="1">
          2.2168784369573578e+00 
        </Neuron>
        <Neuron NSynapses="1">
          2.8896330234110490e-01 
        </Neuron>
        <Neuron NSynapses="1">
          -9.1514192182279808e-01 
        </Neuron>
        <Neuron NSynapses="1">
          6.9721194333700032e-01 
        </Neuron>
        <Neuron NSynapses="1">
          2.0918214374481828e-01 
        </Neuron>
        <Neuron NSynapses="1">
          9.5349442778260696e-01 
        </Neuron>
      </Layer>
      <Layer Index="3" NNeurons="1">
        <Neuron NSynapses="0"/>
      </Layer>
    </Layout>
  </Weights>
</MethodSetup>
